network unknown {
}
variable AE {
    type discrete [ 20 ] { 0, 1, 2, 3, 4, 5, 6, 7, 8, 9, 10, 11, 12, 13, 14, 16, 17, 18, 19, 20 };
    property weight = None ;
}
variable Target {
    type discrete [ 3 ] { Dropout, Enrolled, Graduate };
    property weight = None ;
}
variable X {
    type discrete [ 4 ] { 0, 1, 2, 3 };
    property weight = None ;
}
variable Y {
    type discrete [ 23 ] { 0, 1, 2, 3, 4, 5, 6, 7, 8, 9, 10, 11, 12, 13, 14, 15, 16, 17, 18, 19, 20, 21, 26 };
    property weight = None ;
}
probability ( AE | Y ) {
    ( 0 ) 0.9324090121317158, 0.03119584055459272, 0.02079722703639515, 0.006932409012131715, 0.006932409012131715, 0.0017331022530329288, 0.0, 0.0, 0.0, 0.0, 0.0, 0.0, 0.0, 0.0, 0.0, 0.0, 0.0, 0.0, 0.0, 0.0;
    ( 1 ) 0.5104166666666666, 0.1875, 0.15625, 0.0625, 0.0625, 0.020833333333333332, 0.0, 0.0, 0.0, 0.0, 0.0, 0.0, 0.0, 0.0, 0.0, 0.0, 0.0, 0.0, 0.0, 0.0;
    ( 2 ) 0.28346456692913385, 0.16535433070866143, 0.1732283464566929, 0.1968503937007874, 0.10236220472440945, 0.047244094488188976, 0.023622047244094488, 0.007874015748031496, 0.0, 0.0, 0.0, 0.0, 0.0, 0.0, 0.0, 0.0, 0.0, 0.0, 0.0, 0.0;
    ( 3 ) 0.09523809523809523, 0.07142857142857142, 0.20952380952380953, 0.24761904761904763, 0.23333333333333334, 0.12857142857142856, 0.014285714285714285, 0.0, 0.0, 0.0, 0.0, 0.0, 0.0, 0.0, 0.0, 0.0, 0.0, 0.0, 0.0, 0.0;
    ( 4 ) 0.0647887323943662, 0.030985915492957747, 0.09014084507042254, 0.19154929577464788, 0.30140845070422534, 0.23661971830985915, 0.07042253521126761, 0.014084507042253521, 0.0, 0.0, 0.0, 0.0, 0.0, 0.0, 0.0, 0.0, 0.0, 0.0, 0.0, 0.0;
    ( 5 ) 0.02268760907504363, 0.006980802792321117, 0.04537521815008726, 0.06980802792321117, 0.16753926701570682, 0.4956369982547993, 0.16928446771378708, 0.017452006980802792, 0.0034904013961605585, 0.0, 0.0017452006980802793, 0.0, 0.0, 0.0, 0.0, 0.0, 0.0, 0.0, 0.0, 0.0;
    ( 6 ) 0.010416666666666666, 0.0010416666666666667, 0.010416666666666666, 0.028125, 0.059375, 0.140625, 0.6802083333333333, 0.04479166666666667, 0.019791666666666666, 0.0020833333333333333, 0.0010416666666666667, 0.0010416666666666667, 0.0010416666666666667, 0.0, 0.0, 0.0, 0.0, 0.0, 0.0, 0.0;
    ( 7 ) 0.0, 0.005494505494505495, 0.005494505494505495, 0.0, 0.008241758241758242, 0.024725274725274724, 0.027472527472527472, 0.46703296703296704, 0.4478021978021978, 0.01098901098901099, 0.0027472527472527475, 0.0, 0.0, 0.0, 0.0, 0.0, 0.0, 0.0, 0.0, 0.0;
    ( 8 ) 0.0, 0.0, 0.0, 0.011111111111111112, 0.011111111111111112, 0.12222222222222222, 0.06666666666666667, 0.044444444444444446, 0.6888888888888889, 0.03333333333333333, 0.022222222222222223, 0.0, 0.0, 0.0, 0.0, 0.0, 0.0, 0.0, 0.0, 0.0;
    ( 9 ) 0.0, 0.0, 0.0, 0.0, 0.03571428571428571, 0.03571428571428571, 0.14285714285714285, 0.39285714285714285, 0.14285714285714285, 0.17857142857142858, 0.07142857142857142, 0.0, 0.0, 0.0, 0.0, 0.0, 0.0, 0.0, 0.0, 0.0;
    ( 10 ) 0.0, 0.0, 0.0, 0.0, 0.09523809523809523, 0.09523809523809523, 0.047619047619047616, 0.14285714285714285, 0.047619047619047616, 0.09523809523809523, 0.3333333333333333, 0.14285714285714285, 0.0, 0.0, 0.0, 0.0, 0.0, 0.0, 0.0, 0.0;
    ( 11 ) 0.0, 0.0, 0.0, 0.0, 0.0, 0.0, 0.027777777777777776, 0.08333333333333333, 0.2222222222222222, 0.16666666666666666, 0.1388888888888889, 0.25, 0.1111111111111111, 0.0, 0.0, 0.0, 0.0, 0.0, 0.0, 0.0;
    ( 12 ) 0.0, 0.0, 0.0, 0.0, 0.0, 0.0, 0.0, 0.05405405405405406, 0.05405405405405406, 0.02702702702702703, 0.1891891891891892, 0.4594594594594595, 0.1891891891891892, 0.02702702702702703, 0.0, 0.0, 0.0, 0.0, 0.0, 0.0;
    ( 13 ) 0.0, 0.0, 0.0, 0.0, 0.0, 0.0, 0.0, 0.0, 0.0, 0.15789473684210525, 0.10526315789473684, 0.3157894736842105, 0.3684210526315789, 0.05263157894736842, 0.0, 0.0, 0.0, 0.0, 0.0, 0.0;
    ( 14 ) 0.0, 0.0, 0.0, 0.0, 0.0, 0.0, 0.07692307692307693, 0.0, 0.0, 0.0, 0.0, 0.23076923076923078, 0.38461538461538464, 0.15384615384615385, 0.07692307692307693, 0.07692307692307693, 0.0, 0.0, 0.0, 0.0;
    ( 15 ) 0.0, 0.0, 0.0, 0.0, 0.0, 0.0, 0.0, 0.0, 0.0, 0.2, 0.0, 0.2, 0.2, 0.2, 0.2, 0.0, 0.0, 0.0, 0.0, 0.0;
    ( 16 ) 0.0, 0.0, 0.0, 0.0, 0.0, 0.0, 0.0, 0.0, 0.0, 0.0, 0.25, 0.0, 0.0, 0.75, 0.0, 0.0, 0.0, 0.0, 0.0, 0.0;
    ( 17 ) 0.0, 0.0, 0.0, 0.0, 0.0, 0.0, 0.0, 0.0, 0.0, 0.0, 0.0, 0.0, 0.2, 0.0, 0.0, 0.2, 0.6, 0.0, 0.0, 0.0;
    ( 18 ) 0.0, 0.0, 0.0, 0.0, 0.0, 0.0, 0.0, 0.0, 0.0, 0.0, 0.0, 0.0, 0.4, 0.4, 0.0, 0.0, 0.0, 0.2, 0.0, 0.0;
    ( 19 ) 0.0, 0.0, 0.0, 0.0, 0.0, 0.0, 0.0, 0.0, 0.0, 0.0, 0.0, 0.0, 0.0, 1.0, 0.0, 0.0, 0.0, 0.0, 0.0, 0.0;
    ( 20 ) 0.0, 0.0, 0.0, 0.0, 0.0, 0.0, 0.0, 0.0, 0.0, 0.0, 0.0, 0.0, 0.0, 0.0, 0.0, 0.0, 0.0, 0.0, 0.0, 1.0;
    ( 21 ) 0.0, 0.0, 0.0, 0.0, 0.0, 0.0, 0.0, 0.0, 0.0, 0.0, 0.0, 0.0, 0.25, 0.0, 0.0, 0.0, 0.0, 0.0, 0.75, 0.0;
    ( 26 ) 0.0, 0.0, 0.0, 0.0, 0.0, 0.0, 0.0, 0.0, 0.0, 0.0, 0.0, 0.0, 0.0, 0.0, 0.0, 0.0, 1.0, 0.0, 0.0, 0.0;

}
probability ( Target | AE, X ) {
    ( 0, 0 ) 0.816, 0.08, 0.104;
    ( 0, 1 ) 0.90625, 0.09375, 0.0;
    ( 0, 2 ) 0.3333333333333333, 0.3333333333333333, 0.3333333333333333;
    ( 0, 3 ) 0.3333333333333333, 0.3333333333333333, 0.3333333333333333;
    ( 1, 0 ) 0.7540983606557377, 0.2459016393442623, 0.0;
    ( 1, 1 ) 0.7241379310344828, 0.27586206896551724, 0.0;
    ( 1, 2 ) 0.3333333333333333, 0.3333333333333333, 0.3333333333333333;
    ( 1, 3 ) 0.3333333333333333, 0.3333333333333333, 0.3333333333333333;
    ( 2, 0 ) 0.5775862068965517, 0.39655172413793105, 0.02586206896551724;
    ( 2, 1 ) 0.7021276595744681, 0.2765957446808511, 0.02127659574468085;
    ( 2, 2 ) 0.3333333333333333, 0.3333333333333333, 0.3333333333333333;
    ( 2, 3 ) 0.3333333333333333, 0.3333333333333333, 0.3333333333333333;
    ( 3, 0 ) 0.4311377245508982, 0.437125748502994, 0.1317365269461078;
    ( 3, 1 ) 0.5714285714285714, 0.3392857142857143, 0.08928571428571429;
    ( 3, 2 ) 0.3333333333333333, 0.3333333333333333, 0.3333333333333333;
    ( 3, 3 ) 0.3333333333333333, 0.3333333333333333, 0.3333333333333333;
    ( 4, 0 ) 0.21454545454545454, 0.3890909090909091, 0.39636363636363636;
    ( 4, 1 ) 0.42857142857142855, 0.38095238095238093, 0.19047619047619047;
    ( 4, 2 ) 1.0, 0.0, 0.0;
    ( 4, 3 ) 0.3333333333333333, 0.3333333333333333, 0.3333333333333333;
    ( 5, 0 ) 0.1317365269461078, 0.20958083832335328, 0.6586826347305389;
    ( 5, 1 ) 0.3114754098360656, 0.3442622950819672, 0.3442622950819672;
    ( 5, 2 ) 0.3333333333333333, 0.3333333333333333, 0.3333333333333333;
    ( 5, 3 ) 0.3333333333333333, 0.3333333333333333, 0.3333333333333333;
    ( 6, 0 ) 0.052980132450331126, 0.09006622516556291, 0.856953642384106;
    ( 6, 1 ) 0.22448979591836735, 0.32653061224489793, 0.4489795918367347;
    ( 6, 2 ) 0.3333333333333333, 0.3333333333333333, 0.3333333333333333;
    ( 6, 3 ) 0.3333333333333333, 0.3333333333333333, 0.3333333333333333;
    ( 7, 0 ) 0.06103286384976526, 0.09859154929577464, 0.8403755868544601;
    ( 7, 1 ) 0.07692307692307693, 0.3076923076923077, 0.6153846153846154;
    ( 7, 2 ) 0.3333333333333333, 0.3333333333333333, 0.3333333333333333;
    ( 7, 3 ) 0.3333333333333333, 0.3333333333333333, 0.3333333333333333;
    ( 8, 0 ) 0.0371900826446281, 0.03305785123966942, 0.9297520661157025;
    ( 8, 1 ) 0.23529411764705882, 0.23529411764705882, 0.5294117647058824;
    ( 8, 2 ) 0.0, 0.0, 1.0;
    ( 8, 3 ) 0.3333333333333333, 0.3333333333333333, 0.3333333333333333;
    ( 9, 0 ) 0.0, 0.0, 1.0;
    ( 9, 1 ) 0.26666666666666666, 0.5333333333333333, 0.2;
    ( 9, 2 ) 0.25, 0.25, 0.5;
    ( 9, 3 ) 0.3333333333333333, 0.3333333333333333, 0.3333333333333333;
    ( 10, 0 ) 0.4, 0.0, 0.6;
    ( 10, 1 ) 0.19047619047619047, 0.23809523809523808, 0.5714285714285714;
    ( 10, 2 ) 0.3333333333333333, 0.0, 0.6666666666666666;
    ( 10, 3 ) 0.3333333333333333, 0.3333333333333333, 0.3333333333333333;
    ( 11, 0 ) 0.0, 0.0, 1.0;
    ( 11, 1 ) 0.05714285714285714, 0.11428571428571428, 0.8285714285714286;
    ( 11, 2 ) 1.0, 0.0, 0.0;
    ( 11, 3 ) 0.3333333333333333, 0.3333333333333333, 0.3333333333333333;
    ( 12, 0 ) 0.0, 0.0, 1.0;
    ( 12, 1 ) 0.2857142857142857, 0.09523809523809523, 0.6190476190476191;
    ( 12, 2 ) 0.14285714285714285, 0.0, 0.8571428571428571;
    ( 12, 3 ) 0.0, 0.0, 1.0;
    ( 13, 0 ) 0.3333333333333333, 0.3333333333333333, 0.3333333333333333;
    ( 13, 1 ) 0.07692307692307693, 0.0, 0.9230769230769231;
    ( 13, 2 ) 0.0, 0.0, 1.0;
    ( 13, 3 ) 0.3333333333333333, 0.3333333333333333, 0.3333333333333333;
    ( 14, 0 ) 0.3333333333333333, 0.3333333333333333, 0.3333333333333333;
    ( 14, 1 ) 0.0, 0.0, 1.0;
    ( 14, 2 ) 0.3333333333333333, 0.3333333333333333, 0.3333333333333333;
    ( 14, 3 ) 0.3333333333333333, 0.3333333333333333, 0.3333333333333333;
    ( 16, 0 ) 0.3333333333333333, 0.3333333333333333, 0.3333333333333333;
    ( 16, 1 ) 1.0, 0.0, 0.0;
    ( 16, 2 ) 1.0, 0.0, 0.0;
    ( 16, 3 ) 0.3333333333333333, 0.3333333333333333, 0.3333333333333333;
    ( 17, 0 ) 0.3333333333333333, 0.3333333333333333, 0.3333333333333333;
    ( 17, 1 ) 0.0, 0.0, 1.0;
    ( 17, 2 ) 0.0, 0.0, 1.0;
    ( 17, 3 ) 0.3333333333333333, 0.3333333333333333, 0.3333333333333333;
    ( 18, 0 ) 0.3333333333333333, 0.3333333333333333, 0.3333333333333333;
    ( 18, 1 ) 0.0, 0.0, 1.0;
    ( 18, 2 ) 0.0, 0.0, 1.0;
    ( 18, 3 ) 0.3333333333333333, 0.3333333333333333, 0.3333333333333333;
    ( 19, 0 ) 0.3333333333333333, 0.3333333333333333, 0.3333333333333333;
    ( 19, 1 ) 0.0, 0.0, 1.0;
    ( 19, 2 ) 0.0, 0.0, 1.0;
    ( 19, 3 ) 0.3333333333333333, 0.3333333333333333, 0.3333333333333333;
    ( 20, 0 ) 0.3333333333333333, 0.3333333333333333, 0.3333333333333333;
    ( 20, 1 ) 0.3333333333333333, 0.3333333333333333, 0.3333333333333333;
    ( 20, 2 ) 0.0, 0.0, 1.0;
    ( 20, 3 ) 0.3333333333333333, 0.3333333333333333, 0.3333333333333333;

}
probability ( X ) {
    table 0.8397852500706414, 0.1523029104266742, 0.00734670810963549, 0.0005651313930488839 ;
}
probability ( Y | X ) {
    ( 0 ) 0.18270524899057874, 0.021534320323014805, 0.026244952893674293, 0.05047106325706595, 0.09253028263795424, 0.1746298788694482, 0.3092193808882907, 0.11372812920592194, 0.02187079407806191, 0.003028263795423957, 0.0016823687752355316, 0.0023553162853297443, 0.0, 0.0, 0.0, 0.0, 0.0, 0.0, 0.0, 0.0, 0.0, 0.0, 0.0;
    ( 1 ) 0.06307977736549165, 0.059369202226345084, 0.09090909090909091, 0.11131725417439703, 0.14842300556586271, 0.10018552875695733, 0.07421150278293136, 0.04823747680890538, 0.04452690166975881, 0.03153988868274583, 0.029684601113172542, 0.05009276437847866, 0.061224489795918366, 0.029684601113172542, 0.016697588126159554, 0.0074211502782931356, 0.0074211502782931356, 0.0074211502782931356, 0.012987012987012988, 0.0018552875695732839, 0.0, 0.0037105751391465678, 0.0;
    ( 2 ) 0.0, 0.0, 0.0, 0.0, 0.0, 0.0, 0.038461538461538464, 0.0, 0.038461538461538464, 0.07692307692307693, 0.0, 0.07692307692307693, 0.15384615384615385, 0.11538461538461539, 0.15384615384615385, 0.038461538461538464, 0.0, 0.0, 0.07692307692307693, 0.038461538461538464, 0.07692307692307693, 0.07692307692307693, 0.038461538461538464;
    ( 3 ) 0.0, 0.0, 0.0, 0.0, 0.0, 0.0, 0.0, 0.0, 0.0, 0.0, 0.0, 0.0, 0.0, 0.0, 0.0, 0.0, 0.0, 0.5, 0.5, 0.0, 0.0, 0.0, 0.0;

}
